Cell line name,embedding_dim_0,embedding_dim_1,embedding_dim_2,embedding_dim_3,embedding_dim_4,embedding_dim_5,embedding_dim_6,embedding_dim_7,embedding_dim_8,embedding_dim_9,embedding_dim_10,embedding_dim_11,embedding_dim_12,embedding_dim_13,embedding_dim_14,embedding_dim_15,embedding_dim_16,embedding_dim_17,embedding_dim_18,embedding_dim_19,embedding_dim_20,embedding_dim_21,embedding_dim_22,embedding_dim_23,embedding_dim_24,embedding_dim_25,embedding_dim_26,embedding_dim_27,embedding_dim_28,embedding_dim_29,embedding_dim_30,embedding_dim_31,embedding_dim_32,embedding_dim_33,embedding_dim_34,embedding_dim_35,embedding_dim_36,embedding_dim_37,embedding_dim_38,embedding_dim_39,embedding_dim_40,embedding_dim_41,embedding_dim_42
22RV1,0.48862463,0.102590546,-0.45778063,2.2061307,-0.5329551,-1.4999028,-1.8612592,2.0583277,-1.418387,-0.3398296,-0.6878706,0.14536254,0.055291962,-0.51230305,-0.55658823,-0.6464752,-0.9654491,1.779831,-0.6662442,-1.743635,0.07182747,-0.63118345,0.99759555,-1.3671613,0.74021506,0.4059594,0.73019207,0.19580802,-1.5668315,0.6527444,0.6175757,-0.08454616,-0.56819564,-0.9383114,-1.1710519,-1.3786949,-0.64080787,-0.94104874,0.9945893,-0.23732981,-0.020252736,1.4334291,-1.618064
647-V,-0.0455048,-0.8706814,-0.39423957,-0.62357473,0.47507727,-0.24928424,-0.82027197,-2.8645177,-0.024244849,-0.9291075,-0.47014165,-0.47386855,1.6597712,-0.29697013,-0.4210986,0.5962568,0.9438573,-1.597634,-0.08402296,0.60599357,-0.48135582,0.1596686,1.407475,0.74088025,0.37538028,0.41045052,0.59534293,-0.7237873,1.696795,-1.3818256,-0.1263215,-0.099400066,-0.68087596,0.14535843,0.75895435,2.3502376,-0.5321677,-1.6371678,-0.25801092,0.5176335,-0.4098942,-1.5932292,0.9907721
A549,0.427022,0.994661,-0.2613822,-0.56948525,-1.369882,3.1225533,0.24983099,0.55427617,-0.70309025,1.1841109,-0.06359376,0.8432361,0.5417268,0.0021783016,0.6250789,-0.7105729,-1.2130548,0.89380634,0.39195648,-2.2525194,-0.7485746,1.0641931,0.7020209,-0.51773876,0.70645374,-0.48649997,-0.8954715,0.21032208,0.34743223,0.40139803,0.88144827,-0.91630405,-0.4034245,0.61002904,-1.2104322,-0.2112593,-0.19537058,-1.3808978,0.8114429,-0.07076556,0.78033674,0.9873695,-0.67564803
BFTC-905,-0.7436673,0.36877382,2.080694,0.024724243,-0.59712553,0.2963738,0.33511594,0.599033,-0.8467145,1.6578963,-1.4797152,0.44513968,-0.71718836,-0.5651121,2.2460387,0.502712,-0.358459,-0.5886422,-0.110745154,1.1481766,0.45328248,2.3648164,1.6264538,-0.24722162,0.2883617,-1.3827804,-2.7344363,0.13557799,-0.46810788,-1.3153542,-1.6830287,0.69788814,-1.0613574,0.08669009,1.1815681,-0.25666994,-0.05074088,0.26764068,1.1206204,-1.6627624,0.7204384,-1.5103174,-1.5552119
BT-20,0.4164436,-0.63427186,-0.75922024,-0.7771425,1.2509004,-0.27398437,-0.31762826,-0.68893623,0.6539551,-0.20671968,-0.53575224,1.3813426,-0.497583,0.95236135,0.24636358,-0.3272911,-0.5513127,1.119668,-0.4788056,-1.2943147,0.42680523,-1.0273229,2.2965493,-1.7105749,1.8702471,-0.24762507,0.44447172,-0.2819918,-0.122938655,-0.31636852,-0.95727617,0.9734238,1.0253488,1.358851,1.3521905,-0.5766969,-0.105666004,0.034679923,0.16667134,-0.037611872,-1.0146506,-1.0758194,-0.6197404
BT-474,0.12714,0.20266588,0.13739488,-0.15164281,-0.93052256,1.7730163,-1.3950665,-0.803083,-1.0388011,-0.7089308,2.2188888,1.7645004,-1.3132597,-0.10823645,0.70203185,-0.36584118,0.38712853,-0.2837541,0.27153066,-0.6011584,0.48490995,-1.0897921,-0.04285443,-1.3681546,-0.9391513,0.21511267,0.6561937,-0.6870821,1.1444503,0.9145717,-0.13704878,-2.6081848,-0.14995494,0.8874639,1.1828202,0.09150755,-0.10758348,0.64845264,0.6452761,0.943513,-0.12040222,-1.2162176,0.74656546
BT-549,0.6830822,-0.19268551,-1.8340784,1.76064,0.39908743,-1.7260171,0.2900311,-0.014552844,-1.1976594,1.3357444,1.4297833,1.1526451,-0.5747284,0.87554556,1.1705146,-0.67504454,-0.5952868,-0.12827584,-0.0073324014,-0.6685655,-0.46828327,0.6282818,-0.031901453,0.741994,0.661729,0.45062542,1.6315138,-1.6650869,-0.5947474,-0.32222316,0.0096641425,1.4931718,-1.2693471,-0.50129604,0.9624547,1.1066958,1.4063296,-1.0696102,0.02326395,-1.2707975,0.7429379,-0.17435521,-0.5519315
C32,-0.19974546,-0.7391393,-0.07019637,-0.5115495,-2.4714053,-0.59619105,0.41680416,0.5145349,-0.14362653,1.3698195,0.49434224,-0.0068067443,1.3048911,-0.06184783,0.58359,-0.80814266,-2.3590581,-1.8905176,0.3782516,-1.6843868,-0.39250222,1.7063038,0.3656329,-0.15727279,-0.6063817,0.24538092,0.63020504,0.24041876,-0.8226873,-0.8745382,-2.8810244,-0.41207018,-1.3951625,0.37022677,1.2604364,-0.20865817,0.15916707,0.4982886,0.57622814,-1.1622483,-0.8708522,-0.8109842,-0.117638804
CAL-120,0.22173746,-0.41511253,-0.20839156,-0.7596681,0.13894424,0.16346775,-1.1617925,0.70276666,1.1571981,-1.3008825,0.21055256,-0.84098625,0.059948653,0.41807312,0.050319582,-0.5671346,0.29188418,-1.1069595,-0.25720063,1.7813934,-0.3982979,-0.21211651,0.03856827,-0.07859519,-0.96243834,-0.7992432,-0.47331178,0.16637567,-1.4181373,-1.4297842,0.9689438,0.7622547,-0.0024954677,-1.6089807,0.8761312,-0.13324088,-1.4214615,-0.448478,0.43363953,-0.8165719,-0.74267155,0.26243696,-0.6053429
CAL-148,-0.8419594,-0.02891067,0.11914045,-0.079752065,-0.9956294,-1.1579909,0.17303209,1.0030495,0.26152974,0.22801101,0.16675745,-1.8876573,0.72284526,1.5089781,-0.78140134,1.3329008,0.35183376,2.1285274,0.12428456,1.371387,-0.26674274,-0.3803321,0.6751961,0.6411412,0.21951951,-0.13358352,0.6967539,-1.0785086,0.06475396,-0.32755062,2.6029954,-0.74364567,0.5326074,-0.6955777,0.1088342,0.8391527,-0.26727292,0.59758645,-1.0096695,1.1356583,1.441054,-0.5042921,2.077168
CAL-51,-2.1570294,-1.1826392,0.13079886,-0.14543748,0.19158074,-0.51302415,-0.32729876,-0.25684845,0.34915268,-0.62110883,-1.4007889,0.24581191,-0.8879783,1.2953343,-1.9900631,-1.5327576,0.25078988,-0.20320658,1.19137,0.046550654,-0.40873343,0.8420566,1.3429918,-0.16520011,0.19315813,1.5386369,0.8182528,-0.2521179,-0.868959,1.8164939,-0.58863336,-0.7749199,0.9542181,0.26323918,-0.007889384,0.7581099,-0.87809575,-0.008267063,0.31776163,0.2120649,-0.4407977,0.0021952384,0.23615435
CAMA-1,-0.7396388,-0.9933857,0.28782016,0.23192751,-0.47550848,-0.30381024,1.2914443,1.0761325,0.041000944,-0.18547139,-0.5173671,-0.81435347,-1.8770663,0.55138344,1.5422846,0.90012234,1.5352093,-1.7703549,-2.0856905,0.32396564,-0.4670394,-0.51130486,-0.17537165,-1.9980391,-0.60635,0.5714986,-0.2769957,-0.41101396,0.12348956,-0.09495036,-0.33794758,-0.37358296,-0.7650002,0.17479184,0.010420191,-0.44729608,1.1845112,0.069431365,-0.9843818,0.46319467,-1.1177807,1.4046943,-1.1030934
COLO-205,0.8666412,-2.309823,-0.44776893,-1.1916404,1.1739397,-0.94950145,0.94472086,0.76191497,-1.6911848,-0.041355327,-0.54611135,-0.44300327,0.3136216,-1.9500498,-0.78445476,0.45758203,0.6551361,-0.09429824,-0.2997617,0.8438375,1.3922039,0.20434144,0.9886294,-0.30057257,0.3785364,-2.5128582,-0.4092756,1.2560165,-0.28696924,0.24389325,-0.8938465,0.6604197,0.13330503,-3.0012512,0.5612158,-0.07860609,0.6733599,-1.6552415,0.18168135,0.024796937,0.97458476,-0.22747971,0.63793397
Calu-3,-2.1909037,1.1844105,0.6764396,0.69890445,-0.75296885,0.9754343,1.540762,2.059639,-0.24067469,0.11028913,-0.58929956,-0.24018884,0.13808043,0.9240478,1.8303115,0.06571644,-0.26996177,0.5078814,-0.37925404,0.20772228,0.5504704,0.5367585,-0.57033676,0.86990327,-1.173983,-0.71526307,0.10380324,-1.0714254,0.8387544,-1.2541227,-0.64492744,1.3732489,0.026168479,0.5750684,2.1046758,0.44061252,-0.27043056,0.29181883,2.281586,0.25026885,-0.57562673,-0.5652961,-2.316597
Calu-6,-0.6465258,-0.0052954922,-1.2808219,-0.21314034,1.1387407,0.8329057,-0.4973105,-0.1886419,0.8220322,-1.2502298,0.8319343,-1.1206118,1.0948887,-0.13762078,0.4780378,-0.3665927,-0.9621731,-0.067952186,0.9160606,0.4324766,0.14219071,-0.11947163,-1.0923576,-0.24312995,-0.62404525,1.001043,0.6103376,-2.1217444,0.69233555,0.08198101,-0.47476423,-1.1289223,-0.022721719,-2.301487,-0.5744755,0.033802968,-0.8095845,0.46536174,-1.1830393,1.4778837,-0.6042814,0.983699,0.008926423
DMS-114,0.21113853,1.7818825,-0.19181632,0.9449015,-0.41874385,-0.64430743,1.4968593,-1.2005513,0.36206737,-0.4965982,-0.44813803,1.3912696,-0.69285226,1.0426532,0.05235226,0.333033,-1.8470665,-0.9523167,0.56706786,-1.152395,-0.34641424,1.3301222,-2.2242203,-1.5063391,-0.90409935,1.4838058,1.4837787,-0.56444997,0.4219217,1.5123532,-0.90281874,-0.4624947,0.8601259,-0.10723213,-1.3260276,-0.2550261,-0.12489277,-1.3908634,-1.135664,0.925591,-0.59674937,0.37482697,-0.8512038
DU-4475,0.09750253,-0.6110639,0.75785893,0.8466401,1.4654949,-0.09937461,-0.32809266,0.83456933,0.7773218,-0.72339857,2.371382,-0.42343366,-0.1980453,1.7592199,-0.21532553,1.3236076,0.95859766,0.8088542,-0.27771273,0.23552026,1.0375407,0.15684967,-0.8231899,-0.9873814,-0.48787183,1.0073183,-1.0069478,-0.7960066,-1.8389409,-0.40212998,1.8994232,-0.43859884,-1.5450474,-1.1268172,-0.057609584,-0.39688325,-0.43810603,1.1555991,-1.5983381,-0.30181745,0.59078634,-0.72633505,0.4690512
EVSA-T,-0.10418036,0.95588636,-1.5783451,0.37824962,-0.335004,0.4798021,-1.3514597,-1.1588575,0.71331775,-1.5100988,1.4417417,-0.243678,0.3686715,0.64101815,-1.225771,1.1109313,0.4275905,0.36795178,-0.47439513,0.43621343,0.10581629,-1.757426,-1.5836192,-0.18873827,-0.9117895,0.06541664,-0.26986462,-0.2746878,-1.5501028,-0.33423552,0.38233042,-0.5492323,-1.2463992,1.2053847,-1.2215145,1.1540228,-1.0056438,-0.8035318,0.5836124,-1.3023679,-0.0341659,2.3620641,0.7839322
HCC1143,-1.3216841,0.42086816,-0.12362025,0.74398255,-0.53062874,0.90484464,-1.1573952,0.7847328,-1.3741025,-1.8574827,2.2958872,0.4505409,-0.916029,0.4914926,-1.9311734,-0.52961177,0.90726864,0.067868195,0.53712285,-0.016709654,-0.48123202,1.2052441,1.902305,1.3815739,-0.08153561,-1.2517546,-0.23082142,-0.31801882,1.0278394,-0.56318635,-0.7396287,0.1871106,-0.79381585,1.0895202,-0.27675566,-0.12516838,1.4312081,-0.5725621,-0.76203,-1.3670864,-3.1320705,0.7149027,-0.04344895
HCC1187,0.5176171,-0.51731503,-1.1194557,-1.9246491,-0.0075362963,0.04213393,0.1862159,-0.25996926,0.3706452,-0.56497353,-0.4368734,0.6867345,-1.2454753,-0.19252768,0.07933961,2.5198274,0.9278659,-0.3669843,0.3072981,0.20034453,-0.004158045,0.80388445,-1.5647132,-0.6991227,0.1859287,1.0900435,1.5752716,0.11168941,0.3707165,-0.17613016,-0.8743154,-0.99343544,-0.1847374,-1.0307964,0.39946085,-0.46839058,0.60494995,2.4722524,0.40987283,1.436123,-1.275525,0.26337165,-1.8005015
HCC1395,0.47042334,0.2900409,-0.27674013,-0.31015253,-0.89184254,-0.83216566,0.19002517,0.4224933,-0.17868231,1.6492729,0.22999702,-0.28524762,-0.98728794,1.4612967,-0.8779192,1.0945342,-1.9153477,-0.29015744,0.1972218,-1.454895,-0.32635906,-1.1074021,1.1677328,0.62516284,-0.33501425,-1.812652,1.7234607,-0.49023795,0.6414821,0.12897633,-1.1963459,1.5538452,-0.76722395,1.4752978,0.0036499007,-0.09197388,3.6880982,-0.52569044,0.99211633,0.805045,0.08568802,0.17447144,0.6983341
HCC1419,0.61206263,0.9168863,-0.3552297,0.2970205,-1.3820968,-0.33448654,1.2590321,-1.4333448,1.0890472,0.5201202,0.8765742,-2.059898,2.038516,0.670124,-0.6756135,0.1425407,0.02597949,0.5482938,-1.8202156,0.038229164,-0.20241182,2.1502311,-1.9430957,-0.32132345,0.5852618,-0.4322073,0.977031,1.1042604,-1.8662058,-0.9123953,-1.8451035,-0.73783594,-0.32279515,0.7771171,0.966136,-0.28378513,-0.5691844,-1.163889,-0.3389607,0.59545034,-1.5404887,0.8406807,0.8574272
HCC1428,0.3207624,-0.6013828,-1.0355842,-0.62186795,-0.18917857,1.8647357,1.4475163,-0.31820154,0.3525381,-0.9174446,-1.70827,2.455824,-1.8548222,0.41917607,0.29728705,-0.99643797,-0.46237966,-0.5708792,-0.34135315,-0.4893397,-0.47490045,0.73456156,0.7387705,0.8796143,-0.9729321,-0.15081419,-0.60515857,-1.4309225,-0.85790616,0.7307009,-0.41254857,0.9511186,-2.4493568,-0.4935315,0.8994969,0.007842368,-0.016952293,-1.0805888,-0.96401095,1.5484811,0.0057360325,2.335887,-0.27936804
HCC1500,1.0442383,-0.22472858,-1.6650324,0.31642956,-0.6411887,0.08085275,0.37606195,-0.6797263,-0.6802531,0.31052944,-0.18449713,0.07052563,1.7996129,-1.0104682,-1.1727198,1.3072029,-0.88749987,-2.1254938,-0.17864272,-0.6970722,0.43457857,-2.0809386,0.3702321,0.34422928,1.7423683,-0.8988494,2.6621664,-0.8273073,1.4431528,1.2905103,1.0859303,-1.3214558,0.4628639,0.5478747,-1.0567871,1.623803,-0.65907407,0.5027345,0.16882306,0.5519239,1.0364496,0.61605644,-1.3377212
HCC1569,0.75927365,-1.2899605,0.5730334,-0.2004496,0.6923301,-1.7381835,0.39026,-1.0163952,-0.70326316,0.52400845,1.019982,-1.5294155,0.9467715,0.3119519,0.55655235,-2.405787,0.29053634,-0.9573215,-0.84102905,-1.5059589,-0.45465434,1.1971875,0.13870613,-1.6605961,0.78431284,0.7790062,0.71089864,-0.16606633,-0.25579843,0.035126206,-0.6128526,1.0385064,0.78322726,-1.6556021,2.6747074,1.244491,-3.3116264,0.8929865,-0.66964954,0.38903648,0.66137546,-2.3510482,0.62901324
HCC1806,-0.48951393,-0.6013586,1.1904278,-1.5022978,-0.7498734,0.58057946,-0.20583549,-0.19279599,1.0260313,0.41212335,0.530342,-0.22575992,0.37516674,0.41220835,1.2280279,-0.47549483,-0.4540045,-0.86047065,0.4587307,-0.8630138,0.6875382,-0.034152456,-0.10709601,0.53284484,-1.6461855,-0.3991641,-0.3075197,-2.440775,-0.17453985,-2.0914545,0.9613572,0.91751647,-0.4977277,0.5958542,0.24240966,-2.611788,0.0768128,-2.0187824,0.64408374,-0.9274764,0.61963594,1.7626046,-0.21195304
HCC1937,0.6541391,-1.5690144,-0.4325064,0.8415908,-1.1629912,-1.9411707,0.47198397,-0.6222693,0.16783403,0.2791931,-0.53173727,-0.22499087,-0.0750304,0.058847204,-0.13895528,-0.012324655,0.03375053,-1.7124494,-0.9430781,2.5855563,0.90472,0.13063367,1.9312013,0.43847948,-0.023435714,-2.2585118,-0.20370075,-0.16946456,1.5896741,-0.887366,0.18478101,1.4105593,0.8314944,-0.36541155,-0.17144755,-1.4976653,-1.9399825,-1.219007,-1.4871051,-0.91658896,-0.13727202,-0.79393333,-0.65968645
HCC1954,0.100581296,0.87588245,1.6217033,0.7866585,0.43901348,1.4332515,-0.34561497,-0.72752094,1.4702698,1.9188988,-0.3750128,1.2594491,-1.4401387,0.52254814,0.067925856,-0.9695274,0.15136577,1.6698205,0.25876132,-0.050628595,-0.16171637,-0.3611371,1.1911883,-1.1765767,0.16610534,0.86962306,0.23044567,-0.9109262,0.35209033,-1.3439852,-1.099094,-0.047530252,0.34947821,0.4217613,1.8766088,-0.70549434,-0.8975347,-1.156259,-0.8221008,1.1064507,-1.261558,0.2525763,-1.0059114
HCC38,-0.091347024,0.698372,-0.94583625,-2.224619,0.014094029,0.7681056,-1.0832305,0.8199997,1.106623,1.6212856,0.1568567,-1.2270564,1.3741882,0.7147041,-0.14367253,0.11106855,-0.18851568,2.246883,1.3724126,-0.6973406,0.8965133,0.37857008,-1.3607634,0.24276325,-2.2560472,0.4627462,-0.3467105,-1.8031603,0.35954532,-0.42860705,-0.77879703,0.38240698,1.6397691,-1.0833749,0.31869644,0.3334813,-0.042841975,1.0024713,1.5497189,0.76684314,1.1213124,0.73698705,-0.5521798
HCC70,0.94315636,-2.0930529,-0.7367742,-0.3778778,0.7948228,-0.30042073,0.035881273,-0.4646435,0.8242477,-0.57240987,-0.40449253,-0.6802578,0.23872988,1.666006,-2.2142103,0.28317544,-0.37036502,-1.0903227,-1.2482485,1.5188843,-1.7766944,-2.2247193,0.78605324,-1.322737,-1.4342748,1.8300999,0.07960793,1.6243317,0.22338587,0.21396372,0.5893116,-1.4569348,-0.633625,0.9648195,0.19206592,-0.9033063,0.23374058,-0.3927238,1.6027976,-0.0036826425,-1.7237711,2.0144053,0.67695487
HCT-116,-1.0402594,0.858426,0.7311442,-2.5835588,1.9680159,1.8640903,-0.7758287,-0.89161676,0.10856789,0.08746411,0.94138837,-1.9854608,-1.192793,-0.9286811,0.10038309,0.27958807,2.2939837,1.5185943,0.14807713,-2.5640771,0.15997283,0.30841166,0.29404137,-0.14962164,0.7942789,0.46622145,2.0814507,1.255232,1.9641092,-1.8598781,-0.042828552,-1.0077826,-1.4350307,0.4143147,-0.7409697,-0.20943642,-1.5644785,1.4076173,0.2707558,0.7297398,-0.26246235,0.031544566,-0.9959516
HT-1197,-1.2666643,-1.2025635,0.43258694,0.39897102,1.7559314,0.6248924,0.5759626,-0.98179567,0.63203514,-0.23810233,1.2517393,1.5504507,0.82932097,0.38864255,-0.9237763,-0.98839295,-0.25133958,-0.07176164,1.1639274,-1.2575026,0.45264027,0.4032659,-1.9889636,1.0567331,1.5583367,-0.8886373,-1.1461842,-1.9933419,-0.30072862,0.19450589,2.2263443,-0.09855235,-0.46824005,-1.1950475,0.29053363,1.3355557,-0.5558457,1.1454867,-0.42673978,-0.038333677,0.34851453,1.2215327,1.4269047
HT-1376,0.10693877,-0.95707506,1.2078248,0.7414084,-0.037860066,0.45598817,-1.0618263,0.65194213,-0.3405929,1.6435459,0.5592409,0.050138228,-0.78060776,-1.6394687,-0.2808144,1.0285021,0.19456916,-0.09323196,0.6056619,0.3943104,-0.49301293,-0.5494337,-1.1212082,1.5712976,-2.0249407,0.3960089,1.748482,0.26255056,-0.75732565,-0.059307724,-1.92504,-1.3289943,0.87783265,0.40150955,-2.0401719,1.0080248,1.5452932,0.6274835,0.14116001,-0.4957988,-1.1699963,-1.103421,-0.23701207
HT-29,-0.11357561,0.015209762,0.18955159,-0.7319023,-0.68288106,0.30348966,0.16277859,1.0186405,-0.51279753,1.7022686,-2.3102372,-0.4371752,-0.23028165,0.51150775,-0.99827975,0.4511183,-1.1973394,-0.73215944,0.10821052,-0.38025594,-0.18572742,0.09676748,0.17428327,0.41556534,-0.484013,-0.18986677,-0.64535064,-0.5431649,-1.0811834,-0.20240073,-0.25561854,-0.7393788,0.7802483,-0.47280654,-0.7565106,-0.28010967,-2.2398589,-1.8066605,-0.91661435,-1.3383527,1.7222579,0.079774365,1.5111396
Hs-578-T,-0.95304525,1.0347203,0.88114077,0.20923752,0.12302127,1.3571944,-0.14061347,-1.2056834,-1.5781165,0.16506027,0.67021173,2.0978937,-0.39587885,-0.69553113,1.4933376,0.23575477,-0.29361543,-0.0030153745,-0.23684601,-2.78899,-0.7473183,-0.33334675,1.8064095,-0.32874092,-0.54662216,-0.2859778,1.2582949,-2.179643,-1.3282347,0.33613706,0.18220438,0.7161634,0.40292463,1.1794174,0.041535538,1.9065162,-1.3667321,0.5803622,0.9329283,0.9826788,-1.5968788,-0.13192691,-0.17725082
J82,-0.58847815,0.26151684,0.6396161,0.1846013,-0.34989676,0.90957856,-0.3608329,-1.097806,1.1528035,-1.0749093,0.20204112,-0.5908204,-0.7274446,0.8157743,-1.065728,-1.0763888,-1.6798791,-2.1652765,-0.9031908,1.2707269,0.4988895,1.205172,-0.13459992,-0.23831834,0.54949766,-1.3391838,1.470158,1.2189349,-0.03755216,1.9334805,2.093645,0.6085163,1.6105847,-0.75705004,-0.028447883,1.1974295,-1.8628,-1.1724354,1.7959306,-0.062355097,0.11730835,-0.42037287,0.6665952
KATOIII,-0.4674352,-1.3698632,-0.1601915,-1.0385005,1.4837726,-0.29670143,0.22665371,1.5899297,-0.4157705,0.20612107,-0.2075273,-0.4752106,-0.26098305,-0.7523536,1.0855995,1.4675236,-1.08607,0.15055068,1.0793732,0.18461554,-1.087649,0.8210494,-0.94642967,-0.98173374,1.0936743,1.0688152,0.9847927,-0.7566528,-0.7018938,-0.23519015,-1.752785,-1.4198819,1.4590579,0.42996317,-1.2568269,0.5336587,-0.44203088,1.2043145,-0.27425358,0.7158092,1.4494493,-0.58651036,-1.5975143
KMS-11,-0.0822198,-0.042327587,-2.425407,0.1823185,1.3228828,1.1676307,-0.77036625,0.17778765,-1.0517105,-0.13890666,0.76654154,-0.11593948,0.5606101,-0.09372827,-0.35785824,2.1149628,-2.2437768,0.055517487,-0.3843711,-1.2448977,-0.29122818,0.6924796,-0.24268861,-0.9511162,0.33939758,-1.3504838,-1.0362751,-0.47388205,-0.19328853,0.105189234,0.64418983,-0.07204901,0.9614958,-1.6188399,0.8777123,2.0931308,1.2352575,0.5674666,1.7986108,-0.031103276,-0.86042035,0.8915004,-0.06669861
KU-19-19,0.9156865,-0.4004098,-1.1266056,-1.3536335,1.1733621,-1.6290498,1.395931,0.4199588,1.5253532,-1.5577514,0.014979867,-0.55954224,1.189837,0.21228772,-1.7435389,0.32858202,-0.50719124,0.09756805,0.36772627,-1.2048836,0.3394467,0.56655234,0.43311176,1.0219595,-1.0425133,0.27040637,-1.1756701,0.23898932,-0.16320063,-0.013338581,-0.08189112,-0.12994596,0.036596607,-0.7420389,-0.047099885,0.012969497,1.1691352,1.0936003,1.8532653,0.44532743,0.38405153,-0.0050779497,-0.878685
LS-513,-1.1924562,-0.29756832,-0.7122743,-0.6981807,-0.77690846,-0.98607284,0.069252685,-1.2970846,1.559467,1.1990566,0.25759897,0.7714263,-0.1471975,-0.41025817,0.4848191,0.47692007,0.3014609,0.095278464,1.318898,0.0657587,0.021301422,-1.5342003,-1.716771,-0.37311992,0.053875867,0.31498012,0.13669176,-0.18904264,0.83682454,0.035458684,0.6462186,1.110973,1.5317627,-1.0060123,0.36884478,0.49948898,-0.09862307,-0.73401695,-0.73420304,0.8354372,-1.4338231,-1.2815821,2.1502328
M14,1.1246841,0.7633498,0.65811455,-1.2545456,-1.2550325,-0.17850819,0.82553977,-0.036518387,-1.6577257,1.6349493,-1.3413595,0.31963786,-1.2655085,2.2337015,-1.3814033,-0.31996873,0.28161532,0.7931469,0.42921025,1.8892099,-0.71332806,-0.28530994,-0.51763433,-0.2593897,-0.36442202,-0.7683763,-1.2057382,-0.29481947,1.0651505,0.58635944,1.3314054,0.9205797,-1.0180407,0.44164157,0.68763274,1.1979097,-0.2691561,0.39628282,0.244264,0.32483512,1.0787355,0.75846297,-1.144324
MCF7,0.29663065,1.1721134,-0.19384788,0.019155374,-1.6718059,-0.2011235,-0.028803311,-0.3778498,0.56070846,0.24907042,-0.0452721,0.910007,1.1362978,0.8576131,0.5492797,1.0311007,-0.15817848,0.9318146,0.7647566,0.23469417,0.8268425,-0.66270554,0.87301654,-0.34536394,-0.87469083,-0.32513875,0.4345071,1.0210032,0.87364614,0.69389224,0.82735157,-0.45294073,-0.86362565,0.4899275,-0.6405417,-1.1112404,0.602152,-0.705908,-0.2681464,0.89693564,-0.97128433,2.1029937,0.29669788
MDA-MB-157,-0.9799651,1.1657768,0.47410908,0.19926883,-0.24893495,0.24101596,0.09374647,0.42075717,-0.08103737,0.076192416,-0.21265471,-0.93521523,0.15723561,-0.9194714,0.09900215,0.3238295,0.1387151,1.0224196,-0.41909045,0.8736225,1.1047074,1.2843648,1.0396947,-2.4169257,-0.079516776,-1.2266684,-2.7192216,-0.44609562,0.0077314256,-1.8925617,-0.16124982,-0.22087565,1.2116381,-0.39957443,-1.0607177,-0.057020605,-0.24803376,-1.1596199,0.17998813,1.165201,-0.7724571,0.25786608,0.9081031
MDA-MB-175-VII,0.9489415,0.062494397,0.39221278,-2.0415099,0.49629954,-0.34980735,-1.0230701,1.1605052,0.51504445,1.7291838,-0.73294777,-0.7081248,0.5672391,0.5879557,0.5897365,-0.16855533,0.718118,0.6693298,0.43495277,-0.8272118,-0.015966939,2.3541174,-0.19331491,-1.4518874,-0.61311656,1.6288496,0.32994393,0.48362115,1.4661533,0.56326467,0.45615432,-0.21893382,-0.27002805,-1.6260324,0.9572714,-1.1246514,1.6636889,-2.5034564,1.2188907,-0.97780955,-0.58792585,0.37659547,2.1779547
MDA-MB-231,0.012782878,0.22024798,-0.47986245,0.27057123,0.20984611,1.7030649,2.3736193,1.3189527,0.73728806,0.40013802,-0.306619,2.1789737,0.7088626,0.9887521,0.7165694,-0.9218336,-1.2491997,1.5968374,1.5990113,-0.079934984,0.5659518,-0.09374354,-0.46217576,-0.5430407,-0.16231321,1.870403,1.5959334,1.2261803,0.84701484,-0.22297314,-0.22511801,0.12405671,0.77306205,-0.7918677,1.0946407,-0.646401,-0.69732344,0.710262,-0.87027574,-1.4833261,-1.5643246,-0.16548902,0.16453794
MDA-MB-361,-0.26781636,-0.2923313,0.87264127,-1.7037903,-0.4348591,0.930539,-0.59680414,-0.876907,-0.8182761,1.2915221,0.020536447,-1.2625529,0.8663298,-1.0080285,0.89009297,0.06479594,0.3591335,-0.56630856,2.2050333,-0.84700674,-1.3101342,-0.6063152,0.041267052,-0.429151,-0.4064239,1.7874018,1.8309517,-0.28377894,-1.3297796,0.23184705,0.5834234,-0.7947755,0.24823347,-1.40641,0.35562256,1.002555,0.5401454,-2.260274,0.33950785,1.4877981,2.0243936,0.14951535,0.66618353
MDA-MB-415,-0.048239704,0.17269722,-0.15696946,0.42998385,-0.6215325,1.9145452,1.6915556,0.803524,1.2484674,-0.21884671,1.4467273,-0.1590739,-0.3232537,0.3327879,-2.2250724,-0.84927505,-0.0368865,-0.527369,-0.69789314,0.8491091,0.04948376,-1.1721332,0.3691937,-0.71259046,0.1381997,0.012669029,0.32565853,0.5266729,-0.4779522,-2.0368714,-1.3286147,0.11630947,1.3093934,-1.3994763,-0.5369888,-1.0927922,0.4826877,0.02242495,1.0536882,0.20805128,0.7440024,0.8654446,-0.05596911
MDA-MB-436,-0.07972119,0.012636403,-1.9702266,-0.46591684,0.2403735,0.28218135,1.8701241,2.3642013,-0.3848861,-0.045896135,-0.066500045,1.1131121,0.00041993122,1.299208,-0.19903971,-0.1262265,0.029400045,-1.2484462,-0.23433222,0.23382008,0.6009764,0.9074946,0.905129,-1.0575945,-0.49270424,-0.4177758,-0.8612641,-0.4865353,0.30235973,-0.3274896,-0.5856739,0.15851875,0.60163283,0.3719482,0.32390338,-0.35683537,-0.45651722,0.39300755,0.64416677,1.1472092,-0.6278637,-0.8463804,-0.697813
MDA-MB-453,0.9027202,0.3699885,0.20001303,-0.16900484,-1.1127943,-0.47612882,-1.5243646,-1.9391772,0.49728236,0.6575369,-0.7191815,-1.1664238,0.7151007,0.9257249,1.4711422,0.06715938,0.9439582,-1.9275125,0.040963028,0.15608604,-0.051203374,-1.9633418,0.3568342,0.28842175,0.30161443,0.0002646425,0.9199563,0.6721189,1.2057427,-0.054755356,0.42377254,1.8050336,0.14957877,0.9780523,0.90273,0.78715134,-0.45069706,-0.9966862,0.839748,-0.18076968,-0.547253,-0.74247843,0.08994413
MDA-MB-468,0.63358146,0.17374188,0.25653157,0.58853126,1.0443641,-0.9033194,-1.1252433,-0.84169716,-0.33606014,1.1443273,-0.37103876,-0.107026234,1.0798178,-0.91220564,-0.19913033,0.87850606,1.817339,-0.4089098,0.31455493,1.701858,-1.166147,-0.9372733,-0.042220116,-0.1871558,-0.9232058,-0.2105541,1.2834663,0.5500335,-2.5302494,0.54322165,-0.12382141,-2.353848,-0.26400077,-0.44749472,0.8072218,1.6873213,1.4997537,-1.1596291,0.16578759,1.9843919,-0.22209994,-0.69603187,0.57593876
MFM-223,-0.69043106,0.5427014,-0.18979955,0.42745918,0.95263517,-0.34591663,-0.01396479,0.53408515,-0.01754179,-0.040443383,1.4318196,1.7496774,0.4308943,1.624778,0.9409503,1.1329699,-0.9725059,-0.07899604,0.094788596,0.03389917,-0.6256328,-0.25648114,1.3140694,-0.27604443,1.8284659,0.13210234,0.5932529,1.6594206,0.8653374,-0.28000402,1.167696,-0.7588682,-0.7000014,-1.2294163,0.03488433,0.6690879,0.53329664,0.28050888,-0.98142684,-1.1936693,-0.8625814,-0.27236536,-0.5457885
NCI-H1299,-0.52121407,-0.34245476,-0.5019097,-1.3396007,0.031255964,-0.58218056,-0.23410976,-1.6872467,0.023055198,-1.392408,1.0152863,1.1072476,1.7672133,1.2597364,0.99612236,-1.2721152,0.9929322,1.5182447,-1.6548141,0.12046823,0.70092213,-0.93210953,-0.013469939,1.4709244,0.20444866,-0.2625684,-0.8407203,0.16971835,-1.6508737,-1.3179909,-1.6356612,1.1702774,-0.2027365,1.064644,0.98648816,-0.7304027,-0.76435447,-0.9560494,0.51789594,1.7446878,0.26919454,1.019964,-0.8622393
NCI-H1437,0.6342543,0.010162828,0.2491148,0.16883068,-1.7257038,-0.13680823,-0.7306263,0.2768129,0.4014031,-0.7587234,0.86670625,0.7305412,0.23632336,-1.5649604,1.1818386,-1.1944445,-0.5348299,0.2538001,0.26036322,0.6343517,-0.49275452,0.7015948,0.74453855,0.5744116,1.7650777,-1.3443179,-0.5648812,0.5548004,1.3393829,0.87240803,1.0553416,0.03213198,2.0614672,1.1571975,-0.22083262,1.6957611,-2.4830155,0.6132248,0.5100323,1.1639735,-1.7164491,0.94660795,-1.1440771
NCI-H1563,-0.16650683,0.21419986,-0.049505096,0.3269757,-0.028387154,1.3385811,0.61636555,0.05603576,-0.7828436,0.26183397,-1.9887185,2.0711212,-0.26360345,-0.42736945,-0.7110805,2.0148706,-1.56792,-1.0392258,0.72260964,-0.35780185,-2.1933315,-0.84932333,-1.0227574,1.0816203,1.6519839,1.4160224,-0.74497896,0.6084622,0.2853463,0.26519847,-0.83631665,-1.3465781,-0.3981346,-0.9062257,0.7238617,0.7721856,-0.13459738,0.012555451,-0.16792929,0.33183295,0.5370138,-0.32257837,0.2190799
NCI-H1703,-0.11105217,-0.34360486,-0.73894763,1.4230729,0.104064435,0.23748468,0.20753437,0.76326907,-1.0628304,0.39107582,0.2849774,-0.2833795,-0.4532851,-0.1570691,0.1477822,1.8231748,-2.2058847,-0.5533981,0.8060421,-0.8181205,-1.2806157,-0.031763908,-0.44965947,-0.53591007,-1.2799923,0.32644734,-0.6366726,-1.7833017,0.68123126,-1.4287913,-0.45314598,0.34066117,0.13438435,0.3651523,0.36247772,2.3552997,0.4120446,1.4836363,-0.18333374,-1.3883337,0.39086848,0.6520329,-1.1093135
NCI-H1793,-1.1104512,0.6757871,-0.38111675,0.15925424,-1.7109267,-0.015356317,-0.03947699,-0.28772363,1.0174056,-0.77274823,0.5995739,1.1201514,0.95405275,-1.0704409,0.50919724,-1.304553,-0.3774589,-0.5402909,0.26875335,0.67451847,0.5753189,1.5964242,-0.7705926,-0.44115517,2.8013773,0.39737153,-0.9115218,0.12601554,0.87803274,0.748736,1.011556,-0.3686766,-0.6186858,0.36126703,2.332146,0.6780122,1.6441256,0.03684857,2.8314419,1.5837992,0.53583276,-0.82166135,0.13101771
NCI-H1975,0.28264186,-0.00025650594,0.38276207,0.06617777,-0.92017233,-0.41397914,0.09404226,-0.36803788,-0.7797761,-0.77693933,-0.06979484,-1.666332,-0.8627602,0.9281562,-1.6874352,-0.47254354,-0.9373738,-0.4093527,1.6304107,-0.63750106,-1.3531241,-1.9877461,-1.166601,0.40652972,-0.4181023,-1.0885041,-0.97322625,-0.19588807,0.24070176,-0.3113256,1.3762281,-0.3409172,0.013330485,1.3090359,-0.9849793,-0.5187225,0.10562552,-1.0234926,0.6580823,-0.24662475,1.142894,1.0343491,0.7801666
NCI-H2085,1.5052022,0.72720313,-0.24288607,-0.6306394,-2.2553272,0.3756207,-1.0048413,-0.7380268,0.020471247,0.572087,2.0843594,-0.40168667,-0.20832746,-2.3158224,1.5955476,-0.3661397,1.9283538,1.7342271,-1.2444553,-0.16915366,-0.7167326,-0.9026338,-0.3272627,0.25222182,-0.7388083,-1.0749732,1.1981487,-1.0479692,0.28601918,-0.8778404,-0.052513137,-0.11321132,-0.56055045,1.8788016,1.3034214,0.14837275,0.74955547,0.8366659,-0.8303454,0.6862083,-1.7996137,-0.13882929,-0.7529601
NCI-H2170,0.021907335,-0.15689987,-0.2793506,-0.64649993,-1.3324822,-0.38340667,0.32177526,-0.27551845,0.109131426,-0.6267839,-0.05025809,0.6687459,-2.3373778,0.21312411,-1.3171295,0.0027132502,0.33162567,-0.6707446,1.8013982,0.3072676,0.37431476,-1.936609,-1.453974,1.0009278,-0.3310816,-0.5996022,0.34657058,0.15978785,-1.3579116,-0.58677393,-1.6420952,0.034532703,0.38723803,-0.1517767,-0.50864637,0.015274574,-0.061523825,1.536709,-0.6421009,-0.872338,0.7032555,-0.4379071,1.9208444
NCI-H2228,-0.34715366,-1.7706584,-0.3894187,0.11925833,-0.79582036,-1.4297292,0.4867376,-0.41737673,0.78184706,-1.4444141,1.596499,1.7827609,-0.30796778,-0.9682219,-0.015936676,-2.4803517,-0.71594685,-0.23902427,0.59964335,-0.16281213,-0.6401173,0.11789348,1.8690413,0.22798444,1.4991984,0.6683896,1.3561523,-1.0437671,-0.1003847,0.03170536,0.80106467,-0.71725786,-0.35679746,1.7987661,0.89770347,0.08308519,-0.8822573,0.81912625,0.8151341,0.7761972,0.43310097,0.583661,1.2665225
NCI-H226,1.324186,1.9760367,0.93774015,-0.865028,0.48513594,1.875667,0.92720604,0.05564422,0.15058291,-0.28792283,1.8315573,2.241373,-0.47387952,-2.0608091,0.5145481,-2.0933523,0.26667187,0.8047809,0.47677526,0.61952484,1.4557358,-2.26013,0.9386407,-1.2593838,1.0665581,-0.9784972,0.7509752,-0.5057313,2.3206851,0.76493716,-0.5628162,0.5226943,1.8324976,0.40574604,-1.1076688,0.5575296,0.4966269,1.5622585,0.7568778,-0.6802611,0.20650263,-0.23522155,-0.07148407
NCI-H2291,0.44519705,0.51526785,0.12480831,-0.16058423,-0.7881561,1.2076424,1.4120711,0.34770855,0.29817587,-1.0193394,0.28299853,-0.28723916,-0.44028738,0.066708826,-2.116471,-1.0349847,0.19013631,-0.3830672,-0.85034364,0.69436556,-0.28396446,-1.3702501,-0.38552046,-0.030970687,1.0874074,-0.31750903,0.90291065,-2.355417,1.4062026,-0.8761993,1.5691011,0.3495337,-0.31444642,-0.3504037,-0.5169803,-0.036439322,-0.33943847,-0.67301255,0.99900925,0.31585467,1.2373964,0.51188177,-0.08121881
NCI-H23,0.033577863,-1.4785879,0.5669167,-0.012979585,-0.68471384,-0.46230155,1.7733568,-0.31213307,1.0262192,0.6309636,0.95710725,0.726262,-1.1463342,0.45399818,0.7301537,-0.541892,0.90949297,0.53569484,-1.6779187,0.006724547,-0.44246364,0.52081543,-0.39336613,2.4083242,-2.2129312,-1.3429961,0.73542196,0.9840468,1.4057171,1.5258081,1.6966051,-1.1047345,0.40183756,-0.31404418,0.61402756,-0.9484654,1.2351854,1.3880885,0.4747221,1.7838466,0.6211742,-0.24803776,-0.076256774
NCI-H3122,2.0702288,-2.3057873,-1.3813435,0.28903782,0.03421127,-0.93915945,-0.5197326,-0.64437884,0.008997227,0.73879284,1.0258985,-0.3425643,-0.68328494,-0.83166254,-1.3738933,0.17154343,-1.1044729,-0.77383095,-1.7903209,-0.14168416,-1.094689,0.7891045,0.76633817,-0.23492081,1.323711,-0.7541747,0.2842857,0.4262459,-0.29791772,-0.8423926,-0.9221903,0.17574291,-0.37103686,-1.3018345,-0.06607571,-0.6371663,0.1917402,-0.7834512,0.9700864,-0.83165234,1.9210442,-1.2462243,0.19411989
NCI-H358,-0.008787177,-0.7628037,-0.6301499,-0.35590455,1.4528297,-0.8944406,1.0815006,0.7695551,-0.6062851,1.247075,1.3643852,-1.7481283,0.052421268,1.703994,-0.73429924,-1.0167282,-0.8089603,-0.84480804,-1.1772555,1.301357,-0.18697037,-0.12366304,-1.8164839,-2.2978938,0.08220406,-0.66680247,-0.8913254,-0.07008583,0.7701588,0.07675715,-1.1782105,-0.93182486,0.8066989,-0.23783165,-0.062328007,0.7486135,0.2974127,0.6898406,0.9630504,-0.17802988,-0.56436324,-0.79012865,-0.9485521
NCI-H520,0.47612444,0.6937629,2.2215412,0.47991478,-0.6097935,1.5236561,1.4403565,0.14045076,-0.7197696,0.440764,-1.6741222,1.0115958,-0.9556746,-1.6473038,-0.712067,0.39048147,0.62767434,0.4571468,0.95769125,-1.7576971,-1.5718608,-0.36453697,0.24449375,0.62540334,-1.2762699,-0.5285179,1.6143003,0.010256378,0.06251594,-0.71243817,-0.34585243,0.6012686,-0.19686489,-0.18085091,1.2912109,-1.0212368,-0.42620856,-0.1439979,-0.017997142,1.2574432,1.1773791,2.0287921,0.1253602
NCI-H522,0.22055958,-1.4989489,-0.46943295,1.9072098,1.2898631,-2.0646012,-0.18027212,-2.4581285,1.5143576,0.08540922,0.38073108,-0.34128502,0.4978915,0.30032316,0.07168926,-2.396843,0.2465764,0.051677976,0.07575308,-0.9717447,1.3515577,0.35345042,0.6403856,0.15517995,-0.7507072,0.3313595,0.029789284,0.5087815,0.81691605,0.14386232,-1.9737971,0.70043033,0.45191815,-1.1772939,-0.18897791,-1.3406938,-0.8164564,-1.0364515,0.48334682,1.3678411,1.9378713,-1.0150421,-1.0771008
NCI-H747,-0.44072008,-1.1756028,-1.6587106,1.6010798,-0.18734176,0.45605332,-1.0034591,-1.1894809,0.1470666,0.36208817,-0.57573205,-1.2904297,-0.50717545,1.1110207,1.5191835,-0.6619558,1.7578316,0.8260121,-0.5844282,0.06744767,-0.05799491,1.0356745,-2.6274495,-1.6763266,-0.005784053,-2.0602307,-0.10037614,0.4540109,0.12484689,0.0054349117,0.9587761,1.78473,0.9264468,-0.4962574,-0.48163053,0.45728514,0.36336693,0.95699644,0.3017415,0.65831596,1.8801291,0.113711715,-0.43138
NCI-H838,0.45213324,1.3306197,2.1973488,0.29339653,-0.63358694,0.073394746,0.04439644,-1.3560412,0.91456777,-1.3885343,-0.91062087,1.6887252,-1.6984024,-0.25590298,0.36055255,-0.007231498,1.5401102,-0.82964486,0.17243785,1.2914525,0.6384022,0.63220066,1.1090169,1.7232987,-0.021537244,-0.5272267,2.2083426,0.3508133,-1.2209243,0.4210355,-0.56357014,-0.6448545,-1.023127,0.5289964,-0.2675859,-0.8017195,0.764266,-0.09864127,0.30758336,-0.23344442,-0.0066822707,-1.6316121,-1.7171109
NCI-SNU-16,0.7579344,0.03139749,2.2490637,-1.1274455,-0.10121104,-0.3001056,0.20108542,-1.9702764,0.5752479,0.89082813,0.9532264,0.43297824,1.1233646,0.4246441,-1.1880718,1.6614038,0.19511491,-1.0553964,1.0289032,-0.98604333,-2.1060083,-1.5215561,1.4191258,0.013659102,0.77095526,1.7081808,0.98621714,0.06787622,-0.069800794,-1.6634537,1.0614194,-0.12912992,-0.5044028,0.3727128,-0.7076455,0.24576053,0.5774807,-1.0027385,0.45174992,-0.5715639,0.83518183,-0.43140468,-0.34174058
RKO,-0.07921934,-0.70007944,-0.28398365,1.2136726,0.11327974,-0.7435217,0.32681334,-0.32336828,0.12604618,0.78827304,-0.010546919,0.07800077,0.0035660632,-1.3493998,0.37910923,0.45410416,0.9337606,1.9960495,0.48966032,-0.30549628,-0.8581316,-0.93033516,-1.1439167,0.21604116,-1.5288744,1.7851228,-1.2925874,0.23521134,-0.37156168,0.4704944,-0.80067873,0.8683029,-0.57647526,-0.04435272,0.44691515,0.31831324,1.1942942,0.103755705,0.97071195,0.7589725,-0.063843764,-0.8492009,0.64253926
RT4,-0.9440961,-1.1237601,0.71772945,2.417269,1.6154059,1.6937516,0.2950584,-0.90179175,0.6368439,0.5071366,-0.021644522,0.22779831,-0.11052959,-0.9464373,-0.5656662,0.044396564,-0.10756541,0.2863765,-1.3666563,0.009553583,2.2255194,0.8272419,0.6013423,-0.43296525,-0.5593633,-1.427051,-0.19280142,0.04564883,1.0412973,-0.052894406,-0.4584869,1.116634,-0.4496915,0.8714869,-2.3074887,-0.36102715,0.80966705,1.4150544,2.395151,-0.78337497,1.1338456,-1.785835,-0.0013334866
SW48,-0.51461494,0.30484068,-0.2947959,-0.044801872,0.063833974,0.40668932,1.0806642,1.0987824,-0.8944397,0.65260303,0.8833584,-0.32561615,0.11036238,0.6170842,0.72505754,-0.029268768,0.37764063,0.27925023,-0.8733725,0.48790956,0.10876624,0.11437585,0.8854663,1.430108,0.9553059,0.8671997,-0.11233654,-0.66822344,1.2650093,1.9457399,-1.6269276,-0.6575322,-0.96501863,-0.1932151,0.80754924,1.2066959,-0.27585918,-1.2734027,0.23724404,1.9701821,0.8483285,-0.11756785,-0.7970456
SW620,0.4283186,2.6436017,0.13042851,1.8119464,0.27330184,-0.66956294,0.32943735,0.6839179,-0.07359089,-1.9163988,1.5601732,-1.2704834,0.011487997,0.8672786,0.095439866,-1.1684767,1.6451871,-0.9556823,-1.6132766,-1.7285448,-0.45014662,-0.48192206,0.7915521,0.53703,-0.10388308,-0.45731962,0.56978446,1.416505,0.5040634,1.2816473,1.2330551,-1.4126791,0.808595,-1.1629004,0.68972486,0.5931563,1.4385465,-0.34437266,0.36397207,-0.6224573,0.5238254,-0.41838187,-2.4630423
SW780,0.049951755,-1.7749745,-0.4580239,-0.08445668,1.4347881,1.1148784,0.085613795,0.022289636,0.42398182,-0.875075,0.20418103,-1.4553072,1.9835337,-1.0047381,0.08184534,-0.113118485,1.206185,-0.05472804,-0.92306536,0.1475562,-1.0460492,0.6054714,0.4156503,-0.41627216,-0.40899974,0.73272556,1.7055657,-0.50400496,-0.6376798,1.5546302,-0.57736284,1.6174437,-0.34773085,0.17853807,0.78006065,1.4282554,1.2969835,0.47439465,1.2678133,-0.47521266,-0.34857205,0.06787672,0.4104251
SW837,0.04050906,0.16628411,0.43288988,0.124386445,-0.40952656,1.7685924,0.7163616,1.4952009,-0.27029565,0.31882083,0.46466333,0.16268905,3.2311962,1.3947871,-1.2869307,-1.1970001,-0.66414744,2.3147924,-1.6012725,2.0555315,-0.7873578,-0.096131004,1.3000942,-0.6939282,1.5630896,-0.4346008,1.2258347,0.82062745,-0.9614028,0.9406739,-1.7279856,-1.748554,-1.6040384,-0.80980647,-0.99522257,1.8846893,-0.93695945,1.3909434,-0.35958844,0.23515633,1.0366322,0.5440475,0.8040449
SW900,-1.1465614,1.0964223,-0.69795156,-0.5285132,-2.422688,0.772847,-1.1786824,0.57614106,0.071882635,0.19017905,1.6477016,-0.059998125,-1.1284633,-0.40732762,-0.13233128,1.352675,-0.8076939,-0.12799639,0.9873666,1.4224753,-0.5785596,-3.0271895,-0.7738659,1.9583268,0.018055566,-0.44556448,0.5896826,-0.87768215,-0.44057795,0.8612346,0.063169725,0.90392524,0.8867162,-0.5409704,0.75057757,0.7907825,2.0373647,-1.3159056,-1.1201912,-0.6969017,-0.39754412,1.2599171,0.7955329
SW948,0.4905999,0.45586377,0.047810238,1.2433646,0.91657066,1.5323966,-0.32672113,-0.11458862,0.46899855,1.5089843,-0.46949843,-0.3214247,0.6612875,0.30190247,0.59919816,0.32283214,-1.6217926,-0.6693882,-2.2444408,-0.12696455,-1.7086866,-1.8877851,0.4621537,-1.9140055,0.18869476,0.41779312,1.3462449,2.0073442,0.6915662,0.5287395,-1.7043717,-0.28596324,0.2804864,0.085516065,0.8344623,-0.176779,0.27091575,0.39831838,-0.64440143,-1.0406497,-0.84330136,-1.559049,0.99323076
T-24,0.23380415,-0.9475539,-0.59470123,1.276028,-0.037522826,0.55137336,0.6245413,-2.6398177,0.34968466,0.88024384,0.2588409,-0.18639013,-0.2867096,-0.59034467,1.3593514,-0.044581704,1.5989944,-0.51791763,-0.25222915,0.9967248,-1.9416627,0.36715865,-0.83072656,0.8793972,0.63724554,0.9848115,-0.5361482,1.2767016,0.16657212,-0.77695054,0.5166433,1.4512589,0.38360262,2.1492815,-1.4068276,1.1328217,0.26536208,-1.4446105,0.24781944,-0.65901804,1.2650257,1.0265856,-2.3766816
T47D,0.9160624,-0.44259027,1.1066198,-1.0271535,-0.31073436,-1.071524,-1.0241503,1.4507124,-0.98229074,-2.4174726,-0.8801799,-0.43227932,0.41326654,-0.1761745,-0.21914372,0.41910923,-0.9548857,-0.61832774,-0.50207824,0.6457244,0.5150043,0.17610483,0.6456735,-1.1473451,-2.5423796,-2.0793176,1.575542,-0.10494714,0.8579814,-0.36580434,0.36914748,0.5985767,-1.1534173,-2.2452836,-0.13129677,-0.50144446,-0.88312817,0.5562814,-1.4493233,-0.18962266,-0.88128406,-0.3935334,0.894959
TCCSUP,1.1194723,1.686283,0.23205933,0.68681055,-0.14568105,-0.97068465,-0.23212253,0.020632707,0.71527416,1.0428191,0.93247867,0.65758216,-0.789565,-0.093094245,0.21603458,-1.7759109,1.5922164,-0.6359431,-0.9987898,1.1709049,-2.4034522,1.0637872,-1.3768044,-0.29407388,-1.9543229,0.6015046,0.35221198,-1.121505,0.06599616,0.8014059,-0.22610873,0.76436776,-0.3206297,-0.4424366,-0.1727474,0.39614394,0.44025743,-0.23926839,-0.3530033,-1.5618999,0.4429779,0.30868044,1.537286
UACC-812,1.5416496,0.018608296,-1.4128767,-0.055163484,0.37055147,0.70553845,-0.37425187,-0.19866112,1.3372916,-0.42563874,-0.42196092,-1.2601632,-1.7299328,0.077564366,1.4076791,1.0149361,-0.41490686,-0.73178667,-1.7426281,1.2572205,1.3116171,0.23343316,0.6060578,1.5014507,-0.86026585,0.009729386,-0.6535435,-0.17936106,0.9094581,-0.44519773,-0.1081137,-0.016652722,-1.7019333,-0.71705383,-0.2000888,0.23299655,-0.34967068,0.12531504,-0.43970993,0.3295405,-0.29447252,-0.107936144,-0.16613433
UM-UC-3,0.29758003,0.6282439,1.1307551,-1.2239985,-1.5210159,0.51793987,0.34629965,0.65838873,-1.3477243,-1.0770707,-0.3324727,0.9283538,-0.13319081,0.7139424,0.21274042,1.2101146,0.50796586,1.022711,-0.2185823,1.6622851,-1.443117,-1.0021005,0.7668133,-1.2992045,0.21869427,-1.2866988,0.6650248,1.3514864,0.5295646,0.17747664,-0.10494166,-0.72490054,0.17574593,-1.9348278,1.3554801,-1.0273693,1.3378508,0.5938926,-2.2427921,0.5662056,0.26481634,1.0114776,0.42855564
VCaP,-1.131116,0.70885956,-0.6612878,-0.7525474,-1.4410325,-0.116659835,-1.0258007,-0.4829084,-1.6732851,-1.4704516,-1.6926265,0.43037474,2.650515,-0.3955539,0.33657968,-1.0271637,-0.4217274,0.72203046,0.40914932,0.46075678,0.016195394,-0.93758404,-1.2700276,0.708658,0.54934436,0.6584507,0.22249122,0.2684808,-0.9656773,0.34122965,-0.10861842,0.43250382,-0.46607795,0.38920477,-0.82935995,-0.9395781,-1.8949287,0.18530777,1.1960381,0.8600439,0.38621598,-0.5464788,-0.7085451
VM-CUB-1,0.22995262,-0.61589545,-2.0541108,1.000239,0.048260774,-1.6463122,0.61299294,-1.0240136,0.74346846,1.2992419,-0.71375275,-1.3978616,0.77340513,-0.44254938,0.65949285,-1.5715275,-0.36299038,0.4189054,-0.8475333,-0.21697095,0.2510557,-1.8113849,1.0391943,-0.5613647,-2.3681245,-1.1435488,-0.55290234,-0.46921778,-2.1727214,1.7089838,-0.59240204,-1.2178938,1.0815638,-0.5397568,-0.9969553,0.07164245,2.1389105,0.39678925,-1.5403659,-0.6156471,0.35743874,0.8314757,0.09197373
